<?xml version="1.0"?>
<opencv_storage>
<my_svm type_id="opencv-ml-svm">
  <svm_type>C_SVC</svm_type>
  <kernel><type>LINEAR</type></kernel>
  <C>1.</C>
  <term_criteria><epsilon>2.2204460492503131e-16</epsilon>
    <iterations>10000</iterations></term_criteria>
  <var_all>64</var_all>
  <var_count>64</var_count>
  <class_count>2</class_count>
  <class_labels type_id="opencv-matrix">
    <rows>1</rows>
    <cols>2</cols>
    <dt>i</dt>
    <data>
      -1 1</data></class_labels>
  <sv_total>1</sv_total>
  <support_vectors>
    <_>
      1.74328697e+00 -1.38045505e-01 4.11669165e-01 -8.38419378e-01
      -5.62494218e-01 2.88252551e-02 -2.31110733e-02 1.75427675e+00
      1.26455748e+00 7.05711484e-01 -4.05324847e-01 -1.51471651e+00
      -1.24434543e+00 2.42278814e-01 4.47096050e-01 -3.44485156e-02
      9.08137579e-03 -5.04018292e-02 8.30211341e-01 4.00542140e-01
      -4.30372149e-01 1.24427629e+00 3.68333817e-01 8.87249932e-02
      1.96185693e-01 -2.70458400e-01 5.20599008e-01 8.31882358e-02
      1.26665100e-01 1.67264134e-01 -1.27605245e-01 3.73449884e-02
      2.11447403e-01 -9.57304657e-01 -4.77341622e-01 -1.49957249e-02
      2.81787291e-02 -1.09564459e+00 -5.98760068e-01 -6.09530397e-02
      4.28768188e-01 -1.00391567e+00 -3.73100549e-01 7.51511931e-01
      9.05303538e-01 6.13744035e-02 -8.49765658e-01 5.85219383e-01
      -1.75010711e-01 -2.78934807e-01 3.88615429e-02 8.38140368e-01
      5.50967455e-01 2.23297969e-01 -6.29274249e-01 -5.75264513e-01
      6.90760314e-02 -1.60769477e-01 1.20456874e-01 6.49546236e-02
      3.98194551e-01 -1.85243472e-01 4.15679097e-01 2.82408953e-01</_></support_vectors>
  <decision_functions>
    <_>
      <sv_count>1</sv_count>
      <rho>-2.9381220446278458e+00</rho>
      <alpha>
        1.</alpha>
      <index>
        0</index></_></decision_functions></my_svm>
</opencv_storage>
